digraph Tree {
node [shape=box] ;
0 [label="Temperature <= 42.017\ngini = 0.75\nsamples = 1009\nvalue = [250, 254, 250, 255]"] ;
1 [label="Temperature <= 33.89\ngini = 0.085\nsamples = 251\nvalue = [4, 0, 240, 7]"] ;
0 -> 1 [labeldistance=2.5, labelangle=45, headlabel="True"] ;
2 [label="Temperature <= 32.504\ngini = 0.01\nsamples = 192\nvalue = [1, 0, 191, 0]"] ;
1 -> 2 ;
3 [label="gini = 0.0\nsamples = 179\nvalue = [0, 0, 179, 0]"] ;
2 -> 3 ;
4 [label="gini = 0.142\nsamples = 13\nvalue = [1, 0, 12, 0]"] ;
2 -> 4 ;
5 [label="Wind Speed <= 1.5\ngini = 0.294\nsamples = 59\nvalue = [3, 0, 49, 7]"] ;
1 -> 5 ;
6 [label="gini = 0.444\nsamples = 6\nvalue = [0, 0, 2, 4]"] ;
5 -> 6 ;
7 [label="Temperature <= 34.007\ngini = 0.207\nsamples = 53\nvalue = [3, 0, 47, 3]"] ;
5 -> 7 ;
8 [label="gini = 0.0\nsamples = 1\nvalue = [1, 0, 0, 0]"] ;
7 -> 8 ;
9 [label="Pressure <= 1008.5\ngini = 0.178\nsamples = 52\nvalue = [2, 0, 47, 3]"] ;
7 -> 9 ;
10 [label="gini = 0.0\nsamples = 23\nvalue = [0, 0, 23, 0]"] ;
9 -> 10 ;
11 [label="Pressure <= 1010.5\ngini = 0.3\nsamples = 29\nvalue = [2, 0, 24, 3]"] ;
9 -> 11 ;
12 [label="gini = 0.5\nsamples = 4\nvalue = [0, 0, 2, 2]"] ;
11 -> 12 ;
13 [label="Temperature <= 36.95\ngini = 0.218\nsamples = 25\nvalue = [2, 0, 22, 1]"] ;
11 -> 13 ;
14 [label="gini = 0.0\nsamples = 14\nvalue = [0, 0, 14, 0]"] ;
13 -> 14 ;
15 [label="gini = 0.43\nsamples = 11\nvalue = [2, 0, 8, 1]"] ;
13 -> 15 ;
16 [label="Temperature <= 66.092\ngini = 0.675\nsamples = 758\nvalue = [246, 254, 10, 248]"] ;
0 -> 16 [labeldistance=2.5, labelangle=-45, headlabel="False"] ;
17 [label="Temperature <= 57.821\ngini = 0.59\nsamples = 266\nvalue = [61, 42, 10, 153]"] ;
16 -> 17 ;
18 [label="Humidity <= 68.5\ngini = 0.532\nsamples = 120\nvalue = [34, 2, 10, 74]"] ;
17 -> 18 ;
19 [label="gini = 0.165\nsamples = 11\nvalue = [10, 0, 0, 1]"] ;
18 -> 19 ;
20 [label="Wind Direction <= 195.0\ngini = 0.494\nsamples = 109\nvalue = [24, 2, 10, 73]"] ;
18 -> 20 ;
21 [label="Pressure <= 1009.5\ngini = 0.586\nsamples = 55\nvalue = [19, 0, 7, 29]"] ;
20 -> 21 ;
22 [label="Wind Direction <= 35.0\ngini = 0.544\nsamples = 23\nvalue = [14, 0, 6, 3]"] ;
21 -> 22 ;
23 [label="gini = 0.32\nsamples = 5\nvalue = [0, 0, 4, 1]"] ;
22 -> 23 ;
24 [label="Pressure <= 1000.0\ngini = 0.37\nsamples = 18\nvalue = [14, 0, 2, 2]"] ;
22 -> 24 ;
25 [label="gini = 0.444\nsamples = 3\nvalue = [0, 0, 2, 1]"] ;
24 -> 25 ;
26 [label="Pressure <= 1002.0\ngini = 0.124\nsamples = 15\nvalue = [14, 0, 0, 1]"] ;
24 -> 26 ;
27 [label="gini = 0.5\nsamples = 2\nvalue = [1, 0, 0, 1]"] ;
26 -> 27 ;
28 [label="gini = 0.0\nsamples = 13\nvalue = [13, 0, 0, 0]"] ;
26 -> 28 ;
29 [label="Temperature <= 47.813\ngini = 0.314\nsamples = 32\nvalue = [5, 0, 1, 26]"] ;
21 -> 29 ;
30 [label="gini = 0.375\nsamples = 4\nvalue = [3, 0, 1, 0]"] ;
29 -> 30 ;
31 [label="Humidity <= 90.0\ngini = 0.133\nsamples = 28\nvalue = [2, 0, 0, 26]"] ;
29 -> 31 ;
32 [label="gini = 0.444\nsamples = 6\nvalue = [2, 0, 0, 4]"] ;
31 -> 32 ;
33 [label="gini = 0.0\nsamples = 22\nvalue = [0, 0, 0, 22]"] ;
31 -> 33 ;
34 [label="Wind Direction <= 292.5\ngini = 0.323\nsamples = 54\nvalue = [5, 2, 3, 44]"] ;
20 -> 34 ;
35 [label="Pressure <= 997.5\ngini = 0.21\nsamples = 44\nvalue = [2, 2, 1, 39]"] ;
34 -> 35 ;
36 [label="gini = 0.0\nsamples = 1\nvalue = [0, 0, 1, 0]"] ;
35 -> 36 ;
37 [label="Pressure <= 1018.5\ngini = 0.173\nsamples = 43\nvalue = [2, 2, 0, 39]"] ;
35 -> 37 ;
38 [label="Temperature <= 53.915\ngini = 0.1\nsamples = 38\nvalue = [2, 0, 0, 36]"] ;
37 -> 38 ;
39 [label="gini = 0.0\nsamples = 27\nvalue = [0, 0, 0, 27]"] ;
38 -> 39 ;
40 [label="gini = 0.298\nsamples = 11\nvalue = [2, 0, 0, 9]"] ;
38 -> 40 ;
41 [label="gini = 0.48\nsamples = 5\nvalue = [0, 2, 0, 3]"] ;
37 -> 41 ;
42 [label="gini = 0.62\nsamples = 10\nvalue = [3, 0, 2, 5]"] ;
34 -> 42 ;
43 [label="Wind Direction <= 6.0\ngini = 0.598\nsamples = 146\nvalue = [27, 40, 0, 79]"] ;
17 -> 43 ;
44 [label="gini = 0.0\nsamples = 4\nvalue = [0, 4, 0, 0]"] ;
43 -> 44 ;
45 [label="Wind Speed <= 2.5\ngini = 0.59\nsamples = 142\nvalue = [27, 36, 0, 79]"] ;
43 -> 45 ;
46 [label="Humidity <= 91.0\ngini = 0.557\nsamples = 81\nvalue = [8, 27, 0, 46]"] ;
45 -> 46 ;
47 [label="Wind Speed <= 1.5\ngini = 0.595\nsamples = 43\nvalue = [5, 20, 0, 18]"] ;
46 -> 47 ;
48 [label="Wind Direction <= 284.0\ngini = 0.477\nsamples = 16\nvalue = [2, 11, 0, 3]"] ;
47 -> 48 ;
49 [label="gini = 0.357\nsamples = 14\nvalue = [2, 11, 0, 1]"] ;
48 -> 49 ;
50 [label="gini = 0.0\nsamples = 2\nvalue = [0, 0, 0, 2]"] ;
48 -> 50 ;
51 [label="Pressure <= 1016.5\ngini = 0.568\nsamples = 27\nvalue = [3, 9, 0, 15]"] ;
47 -> 51 ;
52 [label="gini = 0.643\nsamples = 14\nvalue = [3, 6, 0, 5]"] ;
51 -> 52 ;
53 [label="gini = 0.355\nsamples = 13\nvalue = [0, 3, 0, 10]"] ;
51 -> 53 ;
54 [label="Wind Direction <= 44.5\ngini = 0.417\nsamples = 38\nvalue = [3, 7, 0, 28]"] ;
46 -> 54 ;
55 [label="gini = 0.375\nsamples = 8\nvalue = [0, 6, 0, 2]"] ;
54 -> 55 ;
56 [label="Temperature <= 65.93\ngini = 0.238\nsamples = 30\nvalue = [3, 1, 0, 26]"] ;
54 -> 56 ;
57 [label="Wind Speed <= 0.5\ngini = 0.185\nsamples = 29\nvalue = [3, 0, 0, 26]"] ;
56 -> 57 ;
58 [label="gini = 0.0\nsamples = 1\nvalue = [1, 0, 0, 0]"] ;
57 -> 58 ;
59 [label="Pressure <= 1003.5\ngini = 0.133\nsamples = 28\nvalue = [2, 0, 0, 26]"] ;
57 -> 59 ;
60 [label="gini = 0.0\nsamples = 1\nvalue = [1, 0, 0, 0]"] ;
59 -> 60 ;
61 [label="Pressure <= 1020.5\ngini = 0.071\nsamples = 27\nvalue = [1, 0, 0, 26]"] ;
59 -> 61 ;
62 [label="gini = 0.0\nsamples = 25\nvalue = [0, 0, 0, 25]"] ;
61 -> 62 ;
63 [label="gini = 0.5\nsamples = 2\nvalue = [1, 0, 0, 1]"] ;
61 -> 63 ;
64 [label="gini = 0.0\nsamples = 1\nvalue = [0, 1, 0, 0]"] ;
56 -> 64 ;
65 [label="Wind Direction <= 325.0\ngini = 0.589\nsamples = 61\nvalue = [19, 9, 0, 33]"] ;
45 -> 65 ;
66 [label="Temperature <= 62.591\ngini = 0.563\nsamples = 57\nvalue = [19, 6, 0, 32]"] ;
65 -> 66 ;
67 [label="Pressure <= 1022.5\ngini = 0.32\nsamples = 15\nvalue = [3, 0, 0, 12]"] ;
66 -> 67 ;
68 [label="gini = 0.245\nsamples = 14\nvalue = [2, 0, 0, 12]"] ;
67 -> 68 ;
69 [label="gini = 0.0\nsamples = 1\nvalue = [1, 0, 0, 0]"] ;
67 -> 69 ;
70 [label="Humidity <= 92.0\ngini = 0.608\nsamples = 42\nvalue = [16, 6, 0, 20]"] ;
66 -> 70 ;
71 [label="Humidity <= 89.0\ngini = 0.604\nsamples = 32\nvalue = [9, 6, 0, 17]"] ;
70 -> 71 ;
72 [label="Temperature <= 62.708\ngini = 0.571\nsamples = 30\nvalue = [9, 4, 0, 17]"] ;
71 -> 72 ;
73 [label="gini = 0.0\nsamples = 2\nvalue = [2, 0, 0, 0]"] ;
72 -> 73 ;
74 [label="Pressure <= 1019.5\ngini = 0.548\nsamples = 28\nvalue = [7, 4, 0, 17]"] ;
72 -> 74 ;
75 [label="Pressure <= 1010.5\ngini = 0.605\nsamples = 23\nvalue = [7, 4, 0, 12]"] ;
74 -> 75 ;
76 [label="Wind Speed <= 4.5\ngini = 0.498\nsamples = 15\nvalue = [2, 3, 0, 10]"] ;
75 -> 76 ;
77 [label="gini = 0.611\nsamples = 6\nvalue = [2, 3, 0, 1]"] ;
76 -> 77 ;
78 [label="gini = 0.0\nsamples = 9\nvalue = [0, 0, 0, 9]"] ;
76 -> 78 ;
79 [label="gini = 0.531\nsamples = 8\nvalue = [5, 1, 0, 2]"] ;
75 -> 79 ;
80 [label="gini = 0.0\nsamples = 5\nvalue = [0, 0, 0, 5]"] ;
74 -> 80 ;
81 [label="gini = 0.0\nsamples = 2\nvalue = [0, 2, 0, 0]"] ;
71 -> 81 ;
82 [label="gini = 0.42\nsamples = 10\nvalue = [7, 0, 0, 3]"] ;
70 -> 82 ;
83 [label="gini = 0.375\nsamples = 4\nvalue = [0, 3, 0, 1]"] ;
65 -> 83 ;
84 [label="Wind Direction <= 192.5\ngini = 0.636\nsamples = 492\nvalue = [185, 212, 0, 95]"] ;
16 -> 84 ;
85 [label="Humidity <= 77.5\ngini = 0.531\nsamples = 236\nvalue = [61, 147, 0, 28]"] ;
84 -> 85 ;
86 [label="Wind Speed <= 3.5\ngini = 0.369\nsamples = 146\nvalue = [25, 113, 0, 8]"] ;
85 -> 86 ;
87 [label="Pressure <= 1007.0\ngini = 0.261\nsamples = 122\nvalue = [12, 104, 0, 6]"] ;
86 -> 87 ;
88 [label="gini = 0.0\nsamples = 3\nvalue = [3, 0, 0, 0]"] ;
87 -> 88 ;
89 [label="Temperature <= 81.977\ngini = 0.228\nsamples = 119\nvalue = [9, 104, 0, 6]"] ;
87 -> 89 ;
90 [label="Temperature <= 80.123\ngini = 0.312\nsamples = 83\nvalue = [9, 68, 0, 6]"] ;
89 -> 90 ;
91 [label="Humidity <= 72.0\ngini = 0.247\nsamples = 65\nvalue = [3, 56, 0, 6]"] ;
90 -> 91 ;
92 [label="Pressure <= 1016.5\ngini = 0.156\nsamples = 48\nvalue = [2, 44, 0, 2]"] ;
91 -> 92 ;
93 [label="Humidity <= 49.5\ngini = 0.355\nsamples = 19\nvalue = [2, 15, 0, 2]"] ;
92 -> 93 ;
94 [label="gini = 0.0\nsamples = 2\nvalue = [2, 0, 0, 0]"] ;
93 -> 94 ;
95 [label="Pressure <= 1013.0\ngini = 0.208\nsamples = 17\nvalue = [0, 15, 0, 2]"] ;
93 -> 95 ;
96 [label="gini = 0.0\nsamples = 10\nvalue = [0, 10, 0, 0]"] ;
95 -> 96 ;
97 [label="gini = 0.408\nsamples = 7\nvalue = [0, 5, 0, 2]"] ;
95 -> 97 ;
98 [label="gini = 0.0\nsamples = 29\nvalue = [0, 29, 0, 0]"] ;
92 -> 98 ;
99 [label="Temperature <= 73.04\ngini = 0.443\nsamples = 17\nvalue = [1, 12, 0, 4]"] ;
91 -> 99 ;
100 [label="gini = 0.26\nsamples = 13\nvalue = [0, 11, 0, 2]"] ;
99 -> 100 ;
101 [label="gini = 0.625\nsamples = 4\nvalue = [1, 1, 0, 2]"] ;
99 -> 101 ;
102 [label="Humidity <= 61.5\ngini = 0.444\nsamples = 18\nvalue = [6, 12, 0, 0]"] ;
90 -> 102 ;
103 [label="Wind Speed <= 2.5\ngini = 0.32\nsamples = 15\nvalue = [3, 12, 0, 0]"] ;
102 -> 103 ;
104 [label="gini = 0.0\nsamples = 11\nvalue = [0, 11, 0, 0]"] ;
103 -> 104 ;
105 [label="gini = 0.375\nsamples = 4\nvalue = [3, 1, 0, 0]"] ;
103 -> 105 ;
106 [label="gini = 0.0\nsamples = 3\nvalue = [3, 0, 0, 0]"] ;
102 -> 106 ;
107 [label="gini = 0.0\nsamples = 36\nvalue = [0, 36, 0, 0]"] ;
89 -> 107 ;
108 [label="Humidity <= 38.5\ngini = 0.559\nsamples = 24\nvalue = [13, 9, 0, 2]"] ;
86 -> 108 ;
109 [label="gini = 0.0\nsamples = 4\nvalue = [0, 4, 0, 0]"] ;
108 -> 109 ;
110 [label="Temperature <= 79.835\ngini = 0.505\nsamples = 20\nvalue = [13, 5, 0, 2]"] ;
108 -> 110 ;
111 [label="gini = 0.615\nsamples = 13\nvalue = [6, 5, 0, 2]"] ;
110 -> 111 ;
112 [label="gini = 0.0\nsamples = 7\nvalue = [7, 0, 0, 0]"] ;
110 -> 112 ;
113 [label="Wind Direction <= 105.5\ngini = 0.648\nsamples = 90\nvalue = [36, 34, 0, 20]"] ;
85 -> 113 ;
114 [label="Pressure <= 1017.5\ngini = 0.606\nsamples = 35\nvalue = [17, 5, 0, 13]"] ;
113 -> 114 ;
115 [label="Temperature <= 74.084\ngini = 0.544\nsamples = 26\nvalue = [16, 4, 0, 6]"] ;
114 -> 115 ;
116 [label="Wind Direction <= 35.0\ngini = 0.632\nsamples = 19\nvalue = [9, 4, 0, 6]"] ;
115 -> 116 ;
117 [label="gini = 0.48\nsamples = 5\nvalue = [0, 3, 0, 2]"] ;
116 -> 117 ;
118 [label="gini = 0.5\nsamples = 14\nvalue = [9, 1, 0, 4]"] ;
116 -> 118 ;
119 [label="gini = 0.0\nsamples = 7\nvalue = [7, 0, 0, 0]"] ;
115 -> 119 ;
120 [label="gini = 0.37\nsamples = 9\nvalue = [1, 1, 0, 7]"] ;
114 -> 120 ;
121 [label="Pressure <= 1007.5\ngini = 0.586\nsamples = 55\nvalue = [19, 29, 0, 7]"] ;
113 -> 121 ;
122 [label="gini = 0.408\nsamples = 7\nvalue = [5, 0, 0, 2]"] ;
121 -> 122 ;
123 [label="Wind Speed <= 4.5\ngini = 0.539\nsamples = 48\nvalue = [14, 29, 0, 5]"] ;
121 -> 123 ;
124 [label="Humidity <= 85.5\ngini = 0.513\nsamples = 45\nvalue = [11, 29, 0, 5]"] ;
123 -> 124 ;
125 [label="Humidity <= 79.0\ngini = 0.204\nsamples = 18\nvalue = [1, 16, 0, 1]"] ;
124 -> 125 ;
126 [label="gini = 0.0\nsamples = 1\nvalue = [0, 0, 0, 1]"] ;
125 -> 126 ;
127 [label="Pressure <= 1009.5\ngini = 0.111\nsamples = 17\nvalue = [1, 16, 0, 0]"] ;
125 -> 127 ;
128 [label="gini = 0.0\nsamples = 1\nvalue = [1, 0, 0, 0]"] ;
127 -> 128 ;
129 [label="gini = 0.0\nsamples = 16\nvalue = [0, 16, 0, 0]"] ;
127 -> 129 ;
130 [label="Temperature <= 70.367\ngini = 0.609\nsamples = 27\nvalue = [10, 13, 0, 4]"] ;
124 -> 130 ;
131 [label="gini = 0.568\nsamples = 9\nvalue = [5, 1, 0, 3]"] ;
130 -> 131 ;
132 [label="Wind Speed <= 1.5\ngini = 0.475\nsamples = 18\nvalue = [5, 12, 0, 1]"] ;
130 -> 132 ;
133 [label="gini = 0.408\nsamples = 7\nvalue = [5, 2, 0, 0]"] ;
132 -> 133 ;
134 [label="gini = 0.165\nsamples = 11\nvalue = [0, 10, 0, 1]"] ;
132 -> 134 ;
135 [label="gini = 0.0\nsamples = 3\nvalue = [3, 0, 0, 0]"] ;
123 -> 135 ;
136 [label="Wind Direction <= 252.5\ngini = 0.632\nsamples = 256\nvalue = [124, 65, 0, 67]"] ;
84 -> 136 ;
137 [label="Pressure <= 1017.5\ngini = 0.525\nsamples = 132\nvalue = [83, 15, 0, 34]"] ;
136 -> 137 ;
138 [label="Wind Speed <= 3.5\ngini = 0.481\nsamples = 114\nvalue = [78, 15, 0, 21]"] ;
137 -> 138 ;
139 [label="Pressure <= 1010.5\ngini = 0.476\nsamples = 63\nvalue = [43, 14, 0, 6]"] ;
138 -> 139 ;
140 [label="Temperature <= 67.415\ngini = 0.1\nsamples = 19\nvalue = [18, 0, 0, 1]"] ;
139 -> 140 ;
141 [label="gini = 0.5\nsamples = 2\nvalue = [1, 0, 0, 1]"] ;
140 -> 141 ;
142 [label="gini = 0.0\nsamples = 17\nvalue = [17, 0, 0, 0]"] ;
140 -> 142 ;
143 [label="Temperature <= 73.553\ngini = 0.563\nsamples = 44\nvalue = [25, 14, 0, 5]"] ;
139 -> 143 ;
144 [label="Wind Direction <= 222.5\ngini = 0.628\nsamples = 22\nvalue = [8, 10, 0, 4]"] ;
143 -> 144 ;
145 [label="gini = 0.628\nsamples = 11\nvalue = [5, 2, 0, 4]"] ;
144 -> 145 ;
146 [label="gini = 0.397\nsamples = 11\nvalue = [3, 8, 0, 0]"] ;
144 -> 146 ;
147 [label="Temperature <= 86.216\ngini = 0.368\nsamples = 22\nvalue = [17, 4, 0, 1]"] ;
143 -> 147 ;
148 [label="Wind Direction <= 245.0\ngini = 0.277\nsamples = 19\nvalue = [16, 2, 0, 1]"] ;
147 -> 148 ;
149 [label="Humidity <= 61.5\ngini = 0.117\nsamples = 16\nvalue = [15, 0, 0, 1]"] ;
148 -> 149 ;
150 [label="gini = 0.444\nsamples = 3\nvalue = [2, 0, 0, 1]"] ;
149 -> 150 ;
151 [label="gini = 0.0\nsamples = 13\nvalue = [13, 0, 0, 0]"] ;
149 -> 151 ;
152 [label="gini = 0.444\nsamples = 3\nvalue = [1, 2, 0, 0]"] ;
148 -> 152 ;
153 [label="gini = 0.444\nsamples = 3\nvalue = [1, 2, 0, 0]"] ;
147 -> 153 ;
154 [label="Pressure <= 1011.5\ngini = 0.442\nsamples = 51\nvalue = [35, 1, 0, 15]"] ;
138 -> 154 ;
155 [label="Temperature <= 72.86\ngini = 0.498\nsamples = 30\nvalue = [16, 0, 0, 14]"] ;
154 -> 155 ;
156 [label="gini = 0.298\nsamples = 11\nvalue = [9, 0, 0, 2]"] ;
155 -> 156 ;
157 [label="Temperature <= 75.758\ngini = 0.465\nsamples = 19\nvalue = [7, 0, 0, 12]"] ;
155 -> 157 ;
158 [label="gini = 0.0\nsamples = 9\nvalue = [0, 0, 0, 9]"] ;
157 -> 158 ;
159 [label="gini = 0.42\nsamples = 10\nvalue = [7, 0, 0, 3]"] ;
157 -> 159 ;
160 [label="Wind Direction <= 250.5\ngini = 0.177\nsamples = 21\nvalue = [19, 1, 0, 1]"] ;
154 -> 160 ;
161 [label="Humidity <= 43.5\ngini = 0.095\nsamples = 20\nvalue = [19, 1, 0, 0]"] ;
160 -> 161 ;
162 [label="gini = 0.5\nsamples = 2\nvalue = [1, 1, 0, 0]"] ;
161 -> 162 ;
163 [label="gini = 0.0\nsamples = 18\nvalue = [18, 0, 0, 0]"] ;
161 -> 163 ;
164 [label="gini = 0.0\nsamples = 1\nvalue = [0, 0, 0, 1]"] ;
160 -> 164 ;
165 [label="Temperature <= 78.908\ngini = 0.401\nsamples = 18\nvalue = [5, 0, 0, 13]"] ;
137 -> 165 ;
166 [label="gini = 0.133\nsamples = 14\nvalue = [1, 0, 0, 13]"] ;
165 -> 166 ;
167 [label="gini = 0.0\nsamples = 4\nvalue = [4, 0, 0, 0]"] ;
165 -> 167 ;
168 [label="Pressure <= 1002.5\ngini = 0.657\nsamples = 124\nvalue = [41, 50, 0, 33]"] ;
136 -> 168 ;
169 [label="Wind Direction <= 274.0\ngini = 0.278\nsamples = 18\nvalue = [3, 15, 0, 0]"] ;
168 -> 169 ;
170 [label="gini = 0.0\nsamples = 15\nvalue = [0, 15, 0, 0]"] ;
169 -> 170 ;
171 [label="gini = 0.0\nsamples = 3\nvalue = [3, 0, 0, 0]"] ;
169 -> 171 ;
172 [label="Wind Speed <= 4.5\ngini = 0.666\nsamples = 106\nvalue = [38, 35, 0, 33]"] ;
168 -> 172 ;
173 [label="Wind Direction <= 334.5\ngini = 0.648\nsamples = 83\nvalue = [29, 35, 0, 19]"] ;
172 -> 173 ;
174 [label="Wind Direction <= 304.5\ngini = 0.649\nsamples = 57\nvalue = [25, 17, 0, 15]"] ;
173 -> 174 ;
175 [label="Humidity <= 62.5\ngini = 0.581\nsamples = 37\nvalue = [19, 14, 0, 4]"] ;
174 -> 175 ;
176 [label="gini = 0.357\nsamples = 14\nvalue = [11, 2, 0, 1]"] ;
175 -> 176 ;
177 [label="Humidity <= 83.5\ngini = 0.59\nsamples = 23\nvalue = [8, 12, 0, 3]"] ;
175 -> 177 ;
178 [label="gini = 0.379\nsamples = 13\nvalue = [1, 10, 0, 2]"] ;
177 -> 178 ;
179 [label="gini = 0.46\nsamples = 10\nvalue = [7, 2, 0, 1]"] ;
177 -> 179 ;
180 [label="Wind Direction <= 321.5\ngini = 0.585\nsamples = 20\nvalue = [6, 3, 0, 11]"] ;
174 -> 180 ;
181 [label="Temperature <= 69.026\ngini = 0.477\nsamples = 16\nvalue = [3, 2, 0, 11]"] ;
180 -> 181 ;
182 [label="gini = 0.56\nsamples = 5\nvalue = [3, 1, 0, 1]"] ;
181 -> 182 ;
183 [label="gini = 0.165\nsamples = 11\nvalue = [0, 1, 0, 10]"] ;
181 -> 183 ;
184 [label="gini = 0.375\nsamples = 4\nvalue = [3, 1, 0, 0]"] ;
180 -> 184 ;
185 [label="Pressure <= 1011.5\ngini = 0.473\nsamples = 26\nvalue = [4, 18, 0, 4]"] ;
173 -> 185 ;
186 [label="Temperature <= 67.469\ngini = 0.208\nsamples = 17\nvalue = [2, 15, 0, 0]"] ;
185 -> 186 ;
187 [label="gini = 0.0\nsamples = 1\nvalue = [1, 0, 0, 0]"] ;
186 -> 187 ;
188 [label="Wind Direction <= 346.5\ngini = 0.117\nsamples = 16\nvalue = [1, 15, 0, 0]"] ;
186 -> 188 ;
189 [label="gini = 0.0\nsamples = 12\nvalue = [0, 12, 0, 0]"] ;
188 -> 189 ;
190 [label="gini = 0.375\nsamples = 4\nvalue = [1, 3, 0, 0]"] ;
188 -> 190 ;
191 [label="gini = 0.642\nsamples = 9\nvalue = [2, 3, 0, 4]"] ;
185 -> 191 ;
192 [label="Temperature <= 77.828\ngini = 0.476\nsamples = 23\nvalue = [9, 0, 0, 14]"] ;
172 -> 192 ;
193 [label="Humidity <= 80.5\ngini = 0.346\nsamples = 18\nvalue = [4, 0, 0, 14]"] ;
192 -> 193 ;
194 [label="gini = 0.133\nsamples = 14\nvalue = [1, 0, 0, 13]"] ;
193 -> 194 ;
195 [label="gini = 0.375\nsamples = 4\nvalue = [3, 0, 0, 1]"] ;
193 -> 195 ;
196 [label="gini = 0.0\nsamples = 5\nvalue = [5, 0, 0, 0]"] ;
192 -> 196 ;
}